<?xml version="1.0"?>
<opencv_storage>
<cascade>
  <stageType>BOOST</stageType>
  <featureType>HAAR</featureType>
  <height>24</height>
  <width>48</width>
  <stageParams>
    <boostType>GAB</boostType>
    <minHitRate>9.9500000476837158e-01</minHitRate>
    <maxFalseAlarm>5.0000000000000000e-01</maxFalseAlarm>
    <weightTrimRate>9.4999999999999996e-01</weightTrimRate>
    <maxDepth>1</maxDepth>
    <maxWeakCount>100</maxWeakCount></stageParams>
  <featureParams>
    <maxCatCount>0</maxCatCount>
    <featSize>1</featSize>
    <mode>BASIC</mode></featureParams>
  <stageNum>10</stageNum>
  <stages>
    <!-- stage 0 -->
    <_>
      <maxWeakCount>6</maxWeakCount>
      <stageThreshold>-1.2111424207687378e+00</stageThreshold>
      <weakClassifiers>
        <_>
          <internalNodes>
            0 -1 44 2.5359828025102615e-02</internalNodes>
          <leafValues>
            -4.1612198948860168e-01 8.8712871074676514e-01</leafValues></_>
        <_>
          <internalNodes>
            0 -1 89 3.4975081216543913e-03</internalNodes>
          <leafValues>
            -3.4352195262908936e-01 7.5275433063507080e-01</leafValues></_>
        <_>
          <internalNodes>
            0 -1 39 -1.2949360534548759e-02</internalNodes>
          <leafValues>
            8.0286949872970581e-01 -3.4172213077545166e-01</leafValues></_>
        <_>
          <internalNodes>
            0 -1 43 4.1044745594263077e-03</internalNodes>
          <leafValues>
            -4.7204333543777466e-01 6.0140681266784668e-01</leafValues></_>
        <_>
          <internalNodes>
            0 -1 108 5.7347191614098847e-05</internalNodes>
          <leafValues>
            -4.0155619382858276e-01 5.5544459819793701e-01</leafValues></_>
        <_>
          <internalNodes>
            0 -1 26 -4.7451895661652088e-03</internalNodes>
          <leafValues>
            7.0649147033691406e-01 -3.3245307207107544e-01</leafValues></_></weakClassifiers></_>
    <!-- stage 1 -->
    <_>
      <maxWeakCount>7</maxWeakCount>
      <stageThreshold>-1.2375704050064087e+00</stageThreshold>
      <weakClassifiers>
        <_>
          <internalNodes>
            0 -1 37 -1.3423670083284378e-02</internalNodes>
          <leafValues>
            7.4685817956924438e-01 -3.5774648189544678e-01</leafValues></_>
        <_>
          <internalNodes>
            0 -1 109 2.0582109573297203e-04</internalNodes>
          <leafValues>
            -4.3102067708969116e-01 6.9138443470001221e-01</leafValues></_>
        <_>
          <internalNodes>
            0 -1 14 7.3636574670672417e-03</internalNodes>
          <leafValues>
            -4.7232869267463684e-01 5.2476221323013306e-01</leafValues></_>
        <_>
          <internalNodes>
            0 -1 87 1.4149470254778862e-02</internalNodes>
          <leafValues>
            -3.1015691161155701e-01 6.3961261510848999e-01</leafValues></_>
        <_>
          <internalNodes>
            0 -1 28 -4.1564546525478363e-02</internalNodes>
          <leafValues>
            7.1008992195129395e-01 -2.9636624455451965e-01</leafValues></_>
        <_>
          <internalNodes>
            0 -1 83 -3.9428872987627983e-03</internalNodes>
          <leafValues>
            6.2093788385391235e-01 -2.8080427646636963e-01</leafValues></_>
        <_>
          <internalNodes>
            0 -1 40 -2.2804740816354752e-02</internalNodes>
          <leafValues>
            6.8613111972808838e-01 -2.1155218780040741e-01</leafValues></_></weakClassifiers></_>
    <!-- stage 2 -->
    <_>
      <maxWeakCount>10</maxWeakCount>
      <stageThreshold>-1.0214881896972656e+00</stageThreshold>
      <weakClassifiers>
        <_>
          <internalNodes>
            0 -1 51 3.9800688624382019e-02</internalNodes>
          <leafValues>
            -2.5473684072494507e-01 8.3098590373992920e-01</leafValues></_>
        <_>
          <internalNodes>
            0 -1 64 -1.1931845918297768e-02</internalNodes>
          <leafValues>
            6.7913633584976196e-01 -2.7807801961898804e-01</leafValues></_>
        <_>
          <internalNodes>
            0 -1 12 -2.9333515092730522e-02</internalNodes>
          <leafValues>
            6.0911637544631958e-01 -3.3238583803176880e-01</leafValues></_>
        <_>
          <internalNodes>
            0 -1 67 -2.4697102606296539e-02</internalNodes>
          <leafValues>
            4.3715727329254150e-01 -4.4367721676826477e-01</leafValues></_>
        <_>
          <internalNodes>
            0 -1 5 -1.2893325183540583e-03</internalNodes>
          <leafValues>
            4.9041447043418884e-01 -4.3311309814453125e-01</leafValues></_>
        <_>
          <internalNodes>
            0 -1 109 1.6097485058708116e-05</internalNodes>
          <leafValues>
            -4.8502805829048157e-01 3.3055508136749268e-01</leafValues></_>
        <_>
          <internalNodes>
            0 -1 48 7.9682007431983948e-02</internalNodes>
          <leafValues>
            -2.3473623394966125e-01 7.4929523468017578e-01</leafValues></_>
        <_>
          <internalNodes>
            0 -1 91 7.7090896666049957e-03</internalNodes>
          <leafValues>
            -3.2865786552429199e-01 5.0836807489395142e-01</leafValues></_>
        <_>
          <internalNodes>
            0 -1 15 -1.0211411427007988e-04</internalNodes>
          <leafValues>
            -5.8353257179260254e-01 2.6587069034576416e-01</leafValues></_>
        <_>
          <internalNodes>
            0 -1 69 8.8659045286476612e-04</internalNodes>
          <leafValues>
            -2.7241811156272888e-01 5.5284285545349121e-01</leafValues></_></weakClassifiers></_>
    <!-- stage 3 -->
    <_>
      <maxWeakCount>12</maxWeakCount>
      <stageThreshold>-6.3741821050643921e-01</stageThreshold>
      <weakClassifiers>
        <_>
          <internalNodes>
            0 -1 35 4.4561617076396942e-02</internalNodes>
          <leafValues>
            -1.6435644030570984e-01 8.1742739677429199e-01</leafValues></_>
        <_>
          <internalNodes>
            0 -1 0 -1.5204928815364838e-02</internalNodes>
          <leafValues>
            5.6164491176605225e-01 -2.5819274783134460e-01</leafValues></_>
        <_>
          <internalNodes>
            0 -1 54 -1.2494572438299656e-02</internalNodes>
          <leafValues>
            5.2074128389358521e-01 -2.8683790564537048e-01</leafValues></_>
        <_>
          <internalNodes>
            0 -1 65 1.7763651907444000e-02</internalNodes>
          <leafValues>
            -3.8556846976280212e-01 4.2669427394866943e-01</leafValues></_>
        <_>
          <internalNodes>
            0 -1 109 1.6153140677488409e-05</internalNodes>
          <leafValues>
            -5.0315862894058228e-01 2.6325702667236328e-01</leafValues></_>
        <_>
          <internalNodes>
            0 -1 103 -2.1702855883631855e-04</internalNodes>
          <leafValues>
            -8.3215171098709106e-01 1.6759651899337769e-01</leafValues></_>
        <_>
          <internalNodes>
            0 -1 27 -1.0233696084469557e-03</internalNodes>
          <leafValues>
            -8.9230740070343018e-01 1.1375209689140320e-01</leafValues></_>
        <_>
          <internalNodes>
            0 -1 90 -6.7666736431419849e-03</internalNodes>
          <leafValues>
            5.7952380180358887e-01 -2.5787353515625000e-01</leafValues></_>
        <_>
          <internalNodes>
            0 -1 102 5.4034183267503977e-04</internalNodes>
          <leafValues>
            1.5692941844463348e-01 -7.9517674446105957e-01</leafValues></_>
        <_>
          <internalNodes>
            0 -1 79 6.4371153712272644e-03</internalNodes>
          <leafValues>
            -2.5188681483268738e-01 5.0879698991775513e-01</leafValues></_>
        <_>
          <internalNodes>
            0 -1 13 -6.0912654735147953e-03</internalNodes>
          <leafValues>
            4.2497503757476807e-01 -2.8261679410934448e-01</leafValues></_>
        <_>
          <internalNodes>
            0 -1 70 4.3516729027032852e-02</internalNodes>
          <leafValues>
            -2.0037588477134705e-01 6.9540047645568848e-01</leafValues></_></weakClassifiers></_>
    <!-- stage 4 -->
    <_>
      <maxWeakCount>12</maxWeakCount>
      <stageThreshold>-8.5119956731796265e-01</stageThreshold>
      <weakClassifiers>
        <_>
          <internalNodes>
            0 -1 41 7.2873190045356750e-02</internalNodes>
          <leafValues>
            -2.2608695551753044e-02 8.0313199758529663e-01</leafValues></_>
        <_>
          <internalNodes>
            0 -1 59 1.7005371046252549e-04</internalNodes>
          <leafValues>
            -5.0324666500091553e-01 4.1661706566810608e-01</leafValues></_>
        <_>
          <internalNodes>
            0 -1 109 2.5146210100501776e-04</internalNodes>
          <leafValues>
            -3.6452987790107727e-01 4.3550354242324829e-01</leafValues></_>
        <_>
          <internalNodes>
            0 -1 56 -4.6012150123715401e-03</internalNodes>
          <leafValues>
            4.5442521572113037e-01 -3.2449781894683838e-01</leafValues></_>
        <_>
          <internalNodes>
            0 -1 2 -1.8779654055833817e-02</internalNodes>
          <leafValues>
            4.2802783846855164e-01 -3.5420334339141846e-01</leafValues></_>
        <_>
          <internalNodes>
            0 -1 19 -3.1485459767282009e-03</internalNodes>
          <leafValues>
            4.9254989624023438e-01 -2.7195030450820923e-01</leafValues></_>
        <_>
          <internalNodes>
            0 -1 112 1.4553428627550602e-03</internalNodes>
          <leafValues>
            1.4245903491973877e-01 -8.4501832723617554e-01</leafValues></_>
        <_>
          <internalNodes>
            0 -1 25 -4.5846074819564819e-02</internalNodes>
          <leafValues>
            6.5772992372512817e-01 -2.2046020627021790e-01</leafValues></_>
        <_>
          <internalNodes>
            0 -1 17 -2.0706258714199066e-02</internalNodes>
          <leafValues>
            4.0550044178962708e-01 -3.0507695674896240e-01</leafValues></_>
        <_>
          <internalNodes>
            0 -1 105 4.4624164002016187e-04</internalNodes>
          <leafValues>
            1.4381048083305359e-01 -7.4781197309494019e-01</leafValues></_>
        <_>
          <internalNodes>
            0 -1 36 -3.0354827176779509e-03</internalNodes>
          <leafValues>
            4.9355876445770264e-01 -2.3259966075420380e-01</leafValues></_>
        <_>
          <internalNodes>
            0 -1 1 -7.4340794235467911e-03</internalNodes>
          <leafValues>
            3.3120873570442200e-01 -3.3634942770004272e-01</leafValues></_></weakClassifiers></_>
    <!-- stage 5 -->
    <_>
      <maxWeakCount>14</maxWeakCount>
      <stageThreshold>-8.6624133586883545e-01</stageThreshold>
      <weakClassifiers>
        <_>
          <internalNodes>
            0 -1 104 -4.9015914555639029e-05</internalNodes>
          <leafValues>
            7.5643563270568848e-01 -1.2854030728340149e-01</leafValues></_>
        <_>
          <internalNodes>
            0 -1 33 9.8107174038887024e-02</internalNodes>
          <leafValues>
            -1.4825831353664398e-01 8.0962347984313965e-01</leafValues></_>
        <_>
          <internalNodes>
            0 -1 10 -2.7081987354904413e-04</internalNodes>
          <leafValues>
            -5.3771787881851196e-01 3.0740612745285034e-01</leafValues></_>
        <_>
          <internalNodes>
            0 -1 16 1.7487847805023193e-01</internalNodes>
          <leafValues>
            -2.0911563932895660e-01 6.6818434000015259e-01</leafValues></_>
        <_>
          <internalNodes>
            0 -1 6 -8.8016912341117859e-03</internalNodes>
          <leafValues>
            4.0412896871566772e-01 -3.6690872907638550e-01</leafValues></_>
        <_>
          <internalNodes>
            0 -1 101 -6.3421013765037060e-03</internalNodes>
          <leafValues>
            -6.2632560729980469e-01 1.9353093206882477e-01</leafValues></_>
        <_>
          <internalNodes>
            0 -1 92 5.4842848330736160e-03</internalNodes>
          <leafValues>
            -3.4297853708267212e-01 3.7214300036430359e-01</leafValues></_>
        <_>
          <internalNodes>
            0 -1 39 -1.4321511611342430e-02</internalNodes>
          <leafValues>
            4.4796016812324524e-01 -3.5996606945991516e-01</leafValues></_>
        <_>
          <internalNodes>
            0 -1 76 -2.1100237790960819e-04</internalNodes>
          <leafValues>
            -7.3439317941665649e-01 1.8953199684619904e-01</leafValues></_>
        <_>
          <internalNodes>
            0 -1 106 2.9608976910822093e-04</internalNodes>
          <leafValues>
            1.0618872195482254e-01 -7.5534015893936157e-01</leafValues></_>
        <_>
          <internalNodes>
            0 -1 52 -1.3107433915138245e-02</internalNodes>
          <leafValues>
            5.0777441263198853e-01 -2.4126693606376648e-01</leafValues></_>
        <_>
          <internalNodes>
            0 -1 66 3.7123074289411306e-03</internalNodes>
          <leafValues>
            -4.3807050585746765e-01 2.8193056583404541e-01</leafValues></_>
        <_>
          <internalNodes>
            0 -1 73 -4.2559020221233368e-02</internalNodes>
          <leafValues>
            6.6241431236267090e-01 -2.0118848979473114e-01</leafValues></_>
        <_>
          <internalNodes>
            0 -1 11 -2.3364028893411160e-03</internalNodes>
          <leafValues>
            -8.2593297958374023e-01 1.5435555577278137e-01</leafValues></_></weakClassifiers></_>
    <!-- stage 6 -->
    <_>
      <maxWeakCount>14</maxWeakCount>
      <stageThreshold>-7.8014373779296875e-01</stageThreshold>
      <weakClassifiers>
        <_>
          <internalNodes>
            0 -1 78 1.4687887160107493e-03</internalNodes>
          <leafValues>
            -1.5957446396350861e-01 6.9990849494934082e-01</leafValues></_>
        <_>
          <internalNodes>
            0 -1 108 8.8494765805080533e-05</internalNodes>
          <leafValues>
            -3.9312371611595154e-01 4.7431433200836182e-01</leafValues></_>
        <_>
          <internalNodes>
            0 -1 57 -6.2086805701255798e-03</internalNodes>
          <leafValues>
            4.8480215668678284e-01 -3.4972247481346130e-01</leafValues></_>
        <_>
          <internalNodes>
            0 -1 72 -1.4408748596906662e-02</internalNodes>
          <leafValues>
            4.7084087133407593e-01 -3.0469366908073425e-01</leafValues></_>
        <_>
          <internalNodes>
            0 -1 107 7.1722629945725203e-04</internalNodes>
          <leafValues>
            1.5294674038887024e-01 -7.8150218725204468e-01</leafValues></_>
        <_>
          <internalNodes>
            0 -1 20 -1.2192791327834129e-02</internalNodes>
          <leafValues>
            3.0983704328536987e-01 -3.9753547310829163e-01</leafValues></_>
        <_>
          <internalNodes>
            0 -1 42 7.6437629759311676e-03</internalNodes>
          <leafValues>
            -2.1498803794384003e-01 4.8165151476860046e-01</leafValues></_>
        <_>
          <internalNodes>
            0 -1 93 1.0426847729831934e-03</internalNodes>
          <leafValues>
            -2.0992232859134674e-01 5.0705420970916748e-01</leafValues></_>
        <_>
          <internalNodes>
            0 -1 60 1.2273635715246201e-01</internalNodes>
          <leafValues>
            -1.9887198507785797e-01 5.5895739793777466e-01</leafValues></_>
        <_>
          <internalNodes>
            0 -1 95 -1.7317805904895067e-03</internalNodes>
          <leafValues>
            4.7138965129852295e-01 -2.1908672153949738e-01</leafValues></_>
        <_>
          <internalNodes>
            0 -1 47 -2.1402960555860773e-05</internalNodes>
          <leafValues>
            -4.9517261981964111e-01 2.2315609455108643e-01</leafValues></_>
        <_>
          <internalNodes>
            0 -1 71 -3.9962283335626125e-04</internalNodes>
          <leafValues>
            5.1457226276397705e-01 -2.5133511424064636e-01</leafValues></_>
        <_>
          <internalNodes>
            0 -1 30 5.6872214190661907e-04</internalNodes>
          <leafValues>
            -1.5399180352687836e-01 6.6540729999542236e-01</leafValues></_>
        <_>
          <internalNodes>
            0 -1 82 -1.6324063763022423e-03</internalNodes>
          <leafValues>
            -8.7161773443222046e-01 1.4663985371589661e-01</leafValues></_></weakClassifiers></_>
    <!-- stage 7 -->
    <_>
      <maxWeakCount>16</maxWeakCount>
      <stageThreshold>-8.6883968114852905e-01</stageThreshold>
      <weakClassifiers>
        <_>
          <internalNodes>
            0 -1 110 -6.5338565036654472e-05</internalNodes>
          <leafValues>
            7.4656188488006592e-01 -1.2195122241973877e-01</leafValues></_>
        <_>
          <internalNodes>
            0 -1 22 2.8718408197164536e-02</internalNodes>
          <leafValues>
            -2.5805288553237915e-01 5.5316114425659180e-01</leafValues></_>
        <_>
          <internalNodes>
            0 -1 3 -9.7213145345449448e-03</internalNodes>
          <leafValues>
            4.6073758602142334e-01 -2.5497564673423767e-01</leafValues></_>
        <_>
          <internalNodes>
            0 -1 100 -3.7790110218338668e-04</internalNodes>
          <leafValues>
            -6.8880283832550049e-01 1.7671099305152893e-01</leafValues></_>
        <_>
          <internalNodes>
            0 -1 50 -1.4049509540200233e-02</internalNodes>
          <leafValues>
            2.3323184251785278e-01 -4.5842781662940979e-01</leafValues></_>
        <_>
          <internalNodes>
            0 -1 53 6.9873356260359287e-03</internalNodes>
          <leafValues>
            -2.3791496455669403e-01 5.2659344673156738e-01</leafValues></_>
        <_>
          <internalNodes>
            0 -1 85 2.9131431132555008e-02</internalNodes>
          <leafValues>
            -2.1020884811878204e-01 4.7484773397445679e-01</leafValues></_>
        <_>
          <internalNodes>
            0 -1 97 -6.4572021365165710e-03</internalNodes>
          <leafValues>
            6.8838697671890259e-01 -1.9729320704936981e-01</leafValues></_>
        <_>
          <internalNodes>
            0 -1 7 -7.3790765600278974e-04</internalNodes>
          <leafValues>
            -8.9011520147323608e-01 1.4303709566593170e-01</leafValues></_>
        <_>
          <internalNodes>
            0 -1 55 -2.2072626743465662e-03</internalNodes>
          <leafValues>
            3.1455275416374207e-01 -3.1718286871910095e-01</leafValues></_>
        <_>
          <internalNodes>
            0 -1 8 -3.3113543759100139e-04</internalNodes>
          <leafValues>
            -5.0508272647857666e-01 1.9175302982330322e-01</leafValues></_>
        <_>
          <internalNodes>
            0 -1 32 -5.7108122855424881e-02</internalNodes>
          <leafValues>
            3.9619320631027222e-01 -2.7378040552139282e-01</leafValues></_>
        <_>
          <internalNodes>
            0 -1 49 2.5905750691890717e-02</internalNodes>
          <leafValues>
            -2.3067854344844818e-01 4.6579700708389282e-01</leafValues></_>
        <_>
          <internalNodes>
            0 -1 58 -2.6775491423904896e-03</internalNodes>
          <leafValues>
            4.4393891096115112e-01 -2.0321689546108246e-01</leafValues></_>
        <_>
          <internalNodes>
            0 -1 63 2.8566783294081688e-03</internalNodes>
          <leafValues>
            -1.8746517598628998e-01 5.8706486225128174e-01</leafValues></_>
        <_>
          <internalNodes>
            0 -1 99 -5.5860774591565132e-04</internalNodes>
          <leafValues>
            -9.4711804389953613e-01 1.0769166797399521e-01</leafValues></_></weakClassifiers></_>
    <!-- stage 8 -->
    <_>
      <maxWeakCount>15</maxWeakCount>
      <stageThreshold>-5.7389271259307861e-01</stageThreshold>
      <weakClassifiers>
        <_>
          <internalNodes>
            0 -1 109 1.8965496565215290e-04</internalNodes>
          <leafValues>
            -7.6288662850856781e-02 7.5406503677368164e-01</leafValues></_>
        <_>
          <internalNodes>
            0 -1 34 1.3316798955202103e-02</internalNodes>
          <leafValues>
            -2.5993379950523376e-01 5.4764485359191895e-01</leafValues></_>
        <_>
          <internalNodes>
            0 -1 68 -9.1342097148299217e-03</internalNodes>
          <leafValues>
            3.8323554396629333e-01 -2.7670991420745850e-01</leafValues></_>
        <_>
          <internalNodes>
            0 -1 4 -6.1649419367313385e-03</internalNodes>
          <leafValues>
            3.8239315152168274e-01 -3.0440232157707214e-01</leafValues></_>
        <_>
          <internalNodes>
            0 -1 31 2.0331852138042450e-03</internalNodes>
          <leafValues>
            1.1337947845458984e-01 -7.3240649700164795e-01</leafValues></_>
        <_>
          <internalNodes>
            0 -1 105 5.7386851403862238e-04</internalNodes>
          <leafValues>
            1.1111780256032944e-01 -8.5022801160812378e-01</leafValues></_>
        <_>
          <internalNodes>
            0 -1 81 6.2280369093059562e-06</internalNodes>
          <leafValues>
            -3.7267443537712097e-01 2.4646115303039551e-01</leafValues></_>
        <_>
          <internalNodes>
            0 -1 29 -3.0070920474827290e-03</internalNodes>
          <leafValues>
            3.8831937313079834e-01 -2.2598125040531158e-01</leafValues></_>
        <_>
          <internalNodes>
            0 -1 21 -4.9892971292138100e-03</internalNodes>
          <leafValues>
            3.8272079825401306e-01 -2.3872585594654083e-01</leafValues></_>
        <_>
          <internalNodes>
            0 -1 111 1.0937440674751997e-03</internalNodes>
          <leafValues>
            1.7641055583953857e-01 -5.2317315340042114e-01</leafValues></_>
        <_>
          <internalNodes>
            0 -1 76 2.3224217875394970e-04</internalNodes>
          <leafValues>
            9.7115643322467804e-02 -7.5791233777999878e-01</leafValues></_>
        <_>
          <internalNodes>
            0 -1 86 -5.4029142484068871e-03</internalNodes>
          <leafValues>
            3.3393576741218567e-01 -2.6687237620353699e-01</leafValues></_>
        <_>
          <internalNodes>
            0 -1 75 -8.0037000589072704e-04</internalNodes>
          <leafValues>
            -5.6688362360000610e-01 1.7131717503070831e-01</leafValues></_>
        <_>
          <internalNodes>
            0 -1 84 9.3762925826013088e-04</internalNodes>
          <leafValues>
            -1.9203661382198334e-01 5.2679616212844849e-01</leafValues></_>
        <_>
          <internalNodes>
            0 -1 46 2.2595911286771297e-03</internalNodes>
          <leafValues>
            -1.7141482234001160e-01 5.5204814672470093e-01</leafValues></_></weakClassifiers></_>
    <!-- stage 9 -->
    <_>
      <maxWeakCount>16</maxWeakCount>
      <stageThreshold>-7.7429771423339844e-01</stageThreshold>
      <weakClassifiers>
        <_>
          <internalNodes>
            0 -1 108 1.2754625640809536e-04</internalNodes>
          <leafValues>
            -2.8462998569011688e-02 7.6433122158050537e-01</leafValues></_>
        <_>
          <internalNodes>
            0 -1 23 -1.3537090271711349e-02</internalNodes>
          <leafValues>
            6.1683046817779541e-01 -2.3849591612815857e-01</leafValues></_>
        <_>
          <internalNodes>
            0 -1 24 -5.1524802111089230e-03</internalNodes>
          <leafValues>
            3.3591324090957642e-01 -3.5189017653465271e-01</leafValues></_>
        <_>
          <internalNodes>
            0 -1 62 -6.7316787317395210e-03</internalNodes>
          <leafValues>
            3.5723569989204407e-01 -3.2364964485168457e-01</leafValues></_>
        <_>
          <internalNodes>
            0 -1 88 -1.4015485066920519e-03</internalNodes>
          <leafValues>
            2.9456537961959839e-01 -3.0045002698898315e-01</leafValues></_>
        <_>
          <internalNodes>
            0 -1 80 -9.6209452021867037e-04</internalNodes>
          <leafValues>
            6.4462637901306152e-01 -1.4188180863857269e-01</leafValues></_>
        <_>
          <internalNodes>
            0 -1 96 1.8172238487750292e-03</internalNodes>
          <leafValues>
            -1.7456297576427460e-01 4.9048900604248047e-01</leafValues></_>
        <_>
          <internalNodes>
            0 -1 18 1.1424200609326363e-02</internalNodes>
          <leafValues>
            1.4817237854003906e-01 -6.6622257232666016e-01</leafValues></_>
        <_>
          <internalNodes>
            0 -1 61 1.3441286981105804e-02</internalNodes>
          <leafValues>
            -2.7001851797103882e-01 4.2901942133903503e-01</leafValues></_>
        <_>
          <internalNodes>
            0 -1 77 6.0666288845823146e-06</internalNodes>
          <leafValues>
            -2.8948622941970825e-01 3.1359964609146118e-01</leafValues></_>
        <_>
          <internalNodes>
            0 -1 9 -7.1329914499074221e-04</internalNodes>
          <leafValues>
            -4.6597564220428467e-01 1.9784994423389435e-01</leafValues></_>
        <_>
          <internalNodes>
            0 -1 98 -1.9706790335476398e-03</internalNodes>
          <leafValues>
            5.1803374290466309e-01 -1.7804723978042603e-01</leafValues></_>
        <_>
          <internalNodes>
            0 -1 74 5.8747344883158803e-04</internalNodes>
          <leafValues>
            -1.8725977838039398e-01 4.6880346536636353e-01</leafValues></_>
        <_>
          <internalNodes>
            0 -1 38 -6.6968519240617752e-03</internalNodes>
          <leafValues>
            6.2573736906051636e-01 -1.3270267844200134e-01</leafValues></_>
        <_>
          <internalNodes>
            0 -1 94 -1.4008018188178539e-03</internalNodes>
          <leafValues>
            -5.2384245395660400e-01 1.8991370499134064e-01</leafValues></_>
        <_>
          <internalNodes>
            0 -1 45 5.4563563317060471e-03</internalNodes>
          <leafValues>
            -1.8999716639518738e-01 4.6836215257644653e-01</leafValues></_></weakClassifiers></_></stages>
  <features>
    <_>
      <rects>
        <_>
          0 0 12 24 -1.</_>
        <_>
          0 0 6 12 2.</_>
        <_>
          6 12 6 12 2.</_></rects>
      <tilted>0</tilted></_>
    <_>
      <rects>
        <_>
          0 2 18 18 -1.</_>
        <_>
          6 2 6 18 3.</_></rects>
      <tilted>0</tilted></_>
    <_>
      <rects>
        <_>
          0 6 14 16 -1.</_>
        <_>
          0 6 7 8 2.</_>
        <_>
          7 14 7 8 2.</_></rects>
      <tilted>0</tilted></_>
    <_>
      <rects>
        <_>
          0 13 10 5 -1.</_>
        <_>
          5 13 5 5 2.</_></rects>
      <tilted>0</tilted></_>
    <_>
      <rects>
        <_>
          0 14 15 6 -1.</_>
        <_>
          5 14 5 6 3.</_></rects>
      <tilted>0</tilted></_>
    <_>
      <rects>
        <_>
          0 14 12 1 -1.</_>
        <_>
          6 14 6 1 2.</_></rects>
      <tilted>0</tilted></_>
    <_>
      <rects>
        <_>
          0 15 12 5 -1.</_>
        <_>
          6 15 6 5 2.</_></rects>
      <tilted>0</tilted></_>
    <_>
      <rects>
        <_>
          0 19 3 5 -1.</_>
        <_>
          1 19 1 5 3.</_></rects>
      <tilted>0</tilted></_>
    <_>
      <rects>
        <_>
          0 22 6 2 -1.</_>
        <_>
          2 22 2 2 3.</_></rects>
      <tilted>0</tilted></_>
    <_>
      <rects>
        <_>
          0 22 32 2 -1.</_>
        <_>
          0 22 16 1 2.</_>
        <_>
          16 23 16 1 2.</_></rects>
      <tilted>0</tilted></_>
    <_>
      <rects>
        <_>
          0 22 23 2 -1.</_>
        <_>
          0 23 23 1 2.</_></rects>
      <tilted>0</tilted></_>
    <_>
      <rects>
        <_>
          0 23 12 1 -1.</_>
        <_>
          4 23 4 1 3.</_></rects>
      <tilted>0</tilted></_>
    <_>
      <rects>
        <_>
          1 9 18 14 -1.</_>
        <_>
          1 9 9 7 2.</_>
        <_>
          10 16 9 7 2.</_></rects>
      <tilted>0</tilted></_>
    <_>
      <rects>
        <_>
          1 11 15 5 -1.</_>
        <_>
          6 11 5 5 3.</_></rects>
      <tilted>0</tilted></_>
    <_>
      <rects>
        <_>
          1 20 32 4 -1.</_>
        <_>
          1 22 32 2 2.</_></rects>
      <tilted>0</tilted></_>
    <_>
      <rects>
        <_>
          2 22 27 2 -1.</_>
        <_>
          2 23 27 1 2.</_></rects>
      <tilted>0</tilted></_>
    <_>
      <rects>
        <_>
          3 5 38 12 -1.</_>
        <_>
          3 9 38 4 3.</_></rects>
      <tilted>0</tilted></_>
    <_>
      <rects>
        <_>
          3 19 36 4 -1.</_>
        <_>
          15 19 12 4 3.</_></rects>
      <tilted>0</tilted></_>
    <_>
      <rects>
        <_>
          3 23 32 1 -1.</_>
        <_>
          19 23 16 1 2.</_></rects>
      <tilted>0</tilted></_>
    <_>
      <rects>
        <_>
          4 9 3 6 -1.</_>
        <_>
          4 12 3 3 2.</_></rects>
      <tilted>0</tilted></_>
    <_>
      <rects>
        <_>
          4 11 14 12 -1.</_>
        <_>
          4 11 7 6 2.</_>
        <_>
          11 17 7 6 2.</_></rects>
      <tilted>0</tilted></_>
    <_>
      <rects>
        <_>
          4 13 14 4 -1.</_>
        <_>
          4 13 7 2 2.</_>
        <_>
          11 15 7 2 2.</_></rects>
      <tilted>0</tilted></_>
    <_>
      <rects>
        <_>
          6 14 38 6 -1.</_>
        <_>
          6 14 19 3 2.</_>
        <_>
          25 17 19 3 2.</_></rects>
      <tilted>0</tilted></_>
    <_>
      <rects>
        <_>
          6 17 22 6 -1.</_>
        <_>
          6 19 22 2 3.</_></rects>
      <tilted>0</tilted></_>
    <_>
      <rects>
        <_>
          7 8 4 10 -1.</_>
        <_>
          7 13 4 5 2.</_></rects>
      <tilted>0</tilted></_>
    <_>
      <rects>
        <_>
          7 10 32 10 -1.</_>
        <_>
          7 10 16 5 2.</_>
        <_>
          23 15 16 5 2.</_></rects>
      <tilted>0</tilted></_>
    <_>
      <rects>
        <_>
          7 13 28 3 -1.</_>
        <_>
          7 14 28 1 3.</_></rects>
      <tilted>0</tilted></_>
    <_>
      <rects>
        <_>
          7 23 6 1 -1.</_>
        <_>
          9 23 2 1 3.</_></rects>
      <tilted>0</tilted></_>
    <_>
      <rects>
        <_>
          8 1 22 9 -1.</_>
        <_>
          8 4 22 3 3.</_></rects>
      <tilted>0</tilted></_>
    <_>
      <rects>
        <_>
          9 2 22 2 -1.</_>
        <_>
          9 3 22 1 2.</_></rects>
      <tilted>0</tilted></_>
    <_>
      <rects>
        <_>
          9 7 1 3 -1.</_>
        <_>
          9 8 1 1 3.</_></rects>
      <tilted>0</tilted></_>
    <_>
      <rects>
        <_>
          9 22 10 2 -1.</_>
        <_>
          14 22 5 2 2.</_></rects>
      <tilted>0</tilted></_>
    <_>
      <rects>
        <_>
          10 4 28 11 -1.</_>
        <_>
          24 4 14 11 2.</_></rects>
      <tilted>0</tilted></_>
    <_>
      <rects>
        <_>
          11 12 30 10 -1.</_>
        <_>
          11 12 15 5 2.</_>
        <_>
          26 17 15 5 2.</_></rects>
      <tilted>0</tilted></_>
    <_>
      <rects>
        <_>
          11 20 21 4 -1.</_>
        <_>
          11 22 21 2 2.</_></rects>
      <tilted>0</tilted></_>
    <_>
      <rects>
        <_>
          12 12 30 10 -1.</_>
        <_>
          12 12 15 5 2.</_>
        <_>
          27 17 15 5 2.</_></rects>
      <tilted>0</tilted></_>
    <_>
      <rects>
        <_>
          13 1 4 6 -1.</_>
        <_>
          13 3 4 2 3.</_></rects>
      <tilted>0</tilted></_>
    <_>
      <rects>
        <_>
          13 10 14 10 -1.</_>
        <_>
          13 15 14 5 2.</_></rects>
      <tilted>0</tilted></_>
    <_>
      <rects>
        <_>
          14 1 28 3 -1.</_>
        <_>
          14 2 28 1 3.</_></rects>
      <tilted>0</tilted></_>
    <_>
      <rects>
        <_>
          14 3 18 6 -1.</_>
        <_>
          14 5 18 2 3.</_></rects>
      <tilted>0</tilted></_>
    <_>
      <rects>
        <_>
          14 14 33 2 -1.</_>
        <_>
          25 14 11 2 3.</_></rects>
      <tilted>0</tilted></_>
    <_>
      <rects>
        <_>
          15 10 28 12 -1.</_>
        <_>
          15 10 14 6 2.</_>
        <_>
          29 16 14 6 2.</_></rects>
      <tilted>0</tilted></_>
    <_>
      <rects>
        <_>
          15 13 12 5 -1.</_>
        <_>
          19 13 4 5 3.</_></rects>
      <tilted>0</tilted></_>
    <_>
      <rects>
        <_>
          15 20 31 4 -1.</_>
        <_>
          15 22 31 2 2.</_></rects>
      <tilted>0</tilted></_>
    <_>
      <rects>
        <_>
          16 11 30 10 -1.</_>
        <_>
          16 11 15 5 2.</_>
        <_>
          31 16 15 5 2.</_></rects>
      <tilted>0</tilted></_>
    <_>
      <rects>
        <_>
          16 12 9 6 -1.</_>
        <_>
          19 12 3 6 3.</_></rects>
      <tilted>0</tilted></_>
    <_>
      <rects>
        <_>
          16 17 11 6 -1.</_>
        <_>
          16 19 11 2 3.</_></rects>
      <tilted>0</tilted></_>
    <_>
      <rects>
        <_>
          16 22 3 2 -1.</_>
        <_>
          16 23 3 1 2.</_></rects>
      <tilted>0</tilted></_>
    <_>
      <rects>
        <_>
          17 4 23 10 -1.</_>
        <_>
          17 9 23 5 2.</_></rects>
      <tilted>0</tilted></_>
    <_>
      <rects>
        <_>
          17 7 26 6 -1.</_>
        <_>
          17 9 26 2 3.</_></rects>
      <tilted>0</tilted></_>
    <_>
      <rects>
        <_>
          18 10 12 8 -1.</_>
        <_>
          18 14 12 4 2.</_></rects>
      <tilted>0</tilted></_>
    <_>
      <rects>
        <_>
          18 10 26 12 -1.</_>
        <_>
          18 10 13 6 2.</_>
        <_>
          31 16 13 6 2.</_></rects>
      <tilted>0</tilted></_>
    <_>
      <rects>
        <_>
          19 5 13 6 -1.</_>
        <_>
          19 7 13 2 3.</_></rects>
      <tilted>0</tilted></_>
    <_>
      <rects>
        <_>
          19 18 14 4 -1.</_>
        <_>
          19 18 7 2 2.</_>
        <_>
          26 20 7 2 2.</_></rects>
      <tilted>0</tilted></_>
    <_>
      <rects>
        <_>
          20 2 21 4 -1.</_>
        <_>
          20 4 21 2 2.</_></rects>
      <tilted>0</tilted></_>
    <_>
      <rects>
        <_>
          20 3 5 4 -1.</_>
        <_>
          20 5 5 2 2.</_></rects>
      <tilted>0</tilted></_>
    <_>
      <rects>
        <_>
          21 4 6 6 -1.</_>
        <_>
          21 6 6 2 3.</_></rects>
      <tilted>0</tilted></_>
    <_>
      <rects>
        <_>
          21 11 9 4 -1.</_>
        <_>
          21 13 9 2 2.</_></rects>
      <tilted>0</tilted></_>
    <_>
      <rects>
        <_>
          22 16 9 4 -1.</_>
        <_>
          25 16 3 4 3.</_></rects>
      <tilted>0</tilted></_>
    <_>
      <rects>
        <_>
          22 20 24 4 -1.</_>
        <_>
          22 22 24 2 2.</_></rects>
      <tilted>0</tilted></_>
    <_>
      <rects>
        <_>
          23 4 18 15 -1.</_>
        <_>
          23 9 18 5 3.</_></rects>
      <tilted>0</tilted></_>
    <_>
      <rects>
        <_>
          23 8 8 16 -1.</_>
        <_>
          23 8 4 8 2.</_>
        <_>
          27 16 4 8 2.</_></rects>
      <tilted>0</tilted></_>
    <_>
      <rects>
        <_>
          23 12 13 6 -1.</_>
        <_>
          23 14 13 2 3.</_></rects>
      <tilted>0</tilted></_>
    <_>
      <rects>
        <_>
          23 16 9 3 -1.</_>
        <_>
          26 16 3 3 3.</_></rects>
      <tilted>0</tilted></_>
    <_>
      <rects>
        <_>
          24 1 14 6 -1.</_>
        <_>
          24 4 14 3 2.</_></rects>
      <tilted>0</tilted></_>
    <_>
      <rects>
        <_>
          24 10 24 8 -1.</_>
        <_>
          24 10 12 4 2.</_>
        <_>
          36 14 12 4 2.</_></rects>
      <tilted>0</tilted></_>
    <_>
      <rects>
        <_>
          24 18 20 6 -1.</_>
        <_>
          34 18 10 6 2.</_></rects>
      <tilted>0</tilted></_>
    <_>
      <rects>
        <_>
          25 9 10 15 -1.</_>
        <_>
          25 14 10 5 3.</_></rects>
      <tilted>0</tilted></_>
    <_>
      <rects>
        <_>
          26 3 13 6 -1.</_>
        <_>
          26 5 13 2 3.</_></rects>
      <tilted>0</tilted></_>
    <_>
      <rects>
        <_>
          26 4 8 2 -1.</_>
        <_>
          26 4 4 1 2.</_>
        <_>
          30 5 4 1 2.</_></rects>
      <tilted>0</tilted></_>
    <_>
      <rects>
        <_>
          26 6 6 15 -1.</_>
        <_>
          26 11 6 5 3.</_></rects>
      <tilted>0</tilted></_>
    <_>
      <rects>
        <_>
          26 16 4 4 -1.</_>
        <_>
          26 16 2 2 2.</_>
        <_>
          28 18 2 2 2.</_></rects>
      <tilted>0</tilted></_>
    <_>
      <rects>
        <_>
          27 0 7 8 -1.</_>
        <_>
          27 4 7 4 2.</_></rects>
      <tilted>0</tilted></_>
    <_>
      <rects>
        <_>
          28 0 15 9 -1.</_>
        <_>
          28 3 15 3 3.</_></rects>
      <tilted>0</tilted></_>
    <_>
      <rects>
        <_>
          28 11 3 8 -1.</_>
        <_>
          29 11 1 8 3.</_></rects>
      <tilted>0</tilted></_>
    <_>
      <rects>
        <_>
          28 21 12 2 -1.</_>
        <_>
          28 22 12 1 2.</_></rects>
      <tilted>0</tilted></_>
    <_>
      <rects>
        <_>
          28 23 3 1 -1.</_>
        <_>
          29 23 1 1 3.</_></rects>
      <tilted>0</tilted></_>
    <_>
      <rects>
        <_>
          29 17 2 1 -1.</_>
        <_>
          30 17 1 1 2.</_></rects>
      <tilted>0</tilted></_>
    <_>
      <rects>
        <_>
          30 16 18 1 -1.</_>
        <_>
          39 16 9 1 2.</_></rects>
      <tilted>0</tilted></_>
    <_>
      <rects>
        <_>
          31 6 16 2 -1.</_>
        <_>
          39 6 8 2 2.</_></rects>
      <tilted>0</tilted></_>
    <_>
      <rects>
        <_>
          32 15 3 2 -1.</_>
        <_>
          32 16 3 1 2.</_></rects>
      <tilted>0</tilted></_>
    <_>
      <rects>
        <_>
          33 17 2 1 -1.</_>
        <_>
          34 17 1 1 2.</_></rects>
      <tilted>0</tilted></_>
    <_>
      <rects>
        <_>
          33 22 6 2 -1.</_>
        <_>
          35 22 2 2 3.</_></rects>
      <tilted>0</tilted></_>
    <_>
      <rects>
        <_>
          34 11 3 6 -1.</_>
        <_>
          34 14 3 3 2.</_></rects>
      <tilted>0</tilted></_>
    <_>
      <rects>
        <_>
          34 13 6 2 -1.</_>
        <_>
          34 13 3 1 2.</_>
        <_>
          37 14 3 1 2.</_></rects>
      <tilted>0</tilted></_>
    <_>
      <rects>
        <_>
          36 7 12 14 -1.</_>
        <_>
          42 7 6 14 2.</_></rects>
      <tilted>0</tilted></_>
    <_>
      <rects>
        <_>
          36 11 12 9 -1.</_>
        <_>
          40 11 4 9 3.</_></rects>
      <tilted>0</tilted></_>
    <_>
      <rects>
        <_>
          36 11 12 5 -1.</_>
        <_>
          42 11 6 5 2.</_></rects>
      <tilted>0</tilted></_>
    <_>
      <rects>
        <_>
          37 3 4 4 -1.</_>
        <_>
          37 5 4 2 2.</_></rects>
      <tilted>0</tilted></_>
    <_>
      <rects>
        <_>
          37 12 10 7 -1.</_>
        <_>
          42 12 5 7 2.</_></rects>
      <tilted>0</tilted></_>
    <_>
      <rects>
        <_>
          38 10 9 6 -1.</_>
        <_>
          41 10 3 6 3.</_></rects>
      <tilted>0</tilted></_>
    <_>
      <rects>
        <_>
          38 11 10 6 -1.</_>
        <_>
          43 11 5 6 2.</_></rects>
      <tilted>0</tilted></_>
    <_>
      <rects>
        <_>
          39 11 8 6 -1.</_>
        <_>
          43 11 4 6 2.</_></rects>
      <tilted>0</tilted></_>
    <_>
      <rects>
        <_>
          39 12 6 1 -1.</_>
        <_>
          42 12 3 1 2.</_></rects>
      <tilted>0</tilted></_>
    <_>
      <rects>
        <_>
          39 19 9 4 -1.</_>
        <_>
          42 19 3 4 3.</_></rects>
      <tilted>0</tilted></_>
    <_>
      <rects>
        <_>
          40 4 6 10 -1.</_>
        <_>
          42 4 2 10 3.</_></rects>
      <tilted>0</tilted></_>
    <_>
      <rects>
        <_>
          40 6 8 4 -1.</_>
        <_>
          40 6 4 2 2.</_>
        <_>
          44 8 4 2 2.</_></rects>
      <tilted>0</tilted></_>
    <_>
      <rects>
        <_>
          40 7 8 6 -1.</_>
        <_>
          44 7 4 6 2.</_></rects>
      <tilted>0</tilted></_>
    <_>
      <rects>
        <_>
          41 3 4 8 -1.</_>
        <_>
          41 3 2 4 2.</_>
        <_>
          43 7 2 4 2.</_></rects>
      <tilted>0</tilted></_>
    <_>
      <rects>
        <_>
          42 20 2 4 -1.</_>
        <_>
          43 20 1 4 2.</_></rects>
      <tilted>0</tilted></_>
    <_>
      <rects>
        <_>
          42 23 6 1 -1.</_>
        <_>
          45 23 3 1 2.</_></rects>
      <tilted>0</tilted></_>
    <_>
      <rects>
        <_>
          43 14 5 8 -1.</_>
        <_>
          43 18 5 4 2.</_></rects>
      <tilted>0</tilted></_>
    <_>
      <rects>
        <_>
          43 19 3 4 -1.</_>
        <_>
          44 19 1 4 3.</_></rects>
      <tilted>0</tilted></_>
    <_>
      <rects>
        <_>
          43 22 3 1 -1.</_>
        <_>
          44 22 1 1 3.</_></rects>
      <tilted>0</tilted></_>
    <_>
      <rects>
        <_>
          43 23 3 1 -1.</_>
        <_>
          44 23 1 1 3.</_></rects>
      <tilted>0</tilted></_>
    <_>
      <rects>
        <_>
          43 23 4 1 -1.</_>
        <_>
          45 23 2 1 2.</_></rects>
      <tilted>0</tilted></_>
    <_>
      <rects>
        <_>
          44 20 3 1 -1.</_>
        <_>
          45 20 1 1 3.</_></rects>
      <tilted>0</tilted></_>
    <_>
      <rects>
        <_>
          44 21 3 3 -1.</_>
        <_>
          45 21 1 3 3.</_></rects>
      <tilted>0</tilted></_>
    <_>
      <rects>
        <_>
          44 23 2 1 -1.</_>
        <_>
          45 23 1 1 2.</_></rects>
      <tilted>0</tilted></_>
    <_>
      <rects>
        <_>
          44 23 3 1 -1.</_>
        <_>
          45 23 1 1 3.</_></rects>
      <tilted>0</tilted></_>
    <_>
      <rects>
        <_>
          45 23 2 1 -1.</_>
        <_>
          46 23 1 1 2.</_></rects>
      <tilted>0</tilted></_>
    <_>
      <rects>
        <_>
          46 15 2 6 -1.</_>
        <_>
          46 17 2 2 3.</_></rects>
      <tilted>0</tilted></_>
    <_>
      <rects>
        <_>
          47 18 1 6 -1.</_>
        <_>
          47 21 1 3 2.</_></rects>
      <tilted>0</tilted></_></features></cascade>
</opencv_storage>
