<?xml version="1.0"?>
<opencv_storage>
<stage0>
  <maxWeakCount>11</maxWeakCount>
  <stageThreshold>-1.8818988800048828e+00</stageThreshold>
  <weakClassifiers>
    <_>
      <internalNodes>
        0 -1 387708 4.6290896832942963e-02</internalNodes>
      <leafValues>
        -6.2569832801818848e-01 5.8923512697219849e-01</leafValues></_>
    <_>
      <internalNodes>
        0 -1 426567 -3.5699006170034409e-02</internalNodes>
      <leafValues>
        5.7814675569534302e-01 -4.0912324190139771e-01</leafValues></_>
    <_>
      <internalNodes>
        0 -1 240324 6.6222017630934715e-03</internalNodes>
      <leafValues>
        -3.9689663052558899e-01 5.6945008039474487e-01</leafValues></_>
    <_>
      <internalNodes>
        0 -1 94494 -3.4646019339561462e-02</internalNodes>
      <leafValues>
        5.0733524560928345e-01 -2.7162531018257141e-01</leafValues></_>
    <_>
      <internalNodes>
        0 -1 20244 -9.9768433719873428e-03</internalNodes>
      <leafValues>
        4.2358326911926270e-01 -3.2490655779838562e-01</leafValues></_>
    <_>
      <internalNodes>
        0 -1 219157 1.6220610123127699e-03</internalNodes>
      <leafValues>
        1.7202423512935638e-01 -7.1933877468109131e-01</leafValues></_>
    <_>
      <internalNodes>
        0 -1 258436 -5.7882308959960938e-02</internalNodes>
      <leafValues>
        6.6083514690399170e-01 -1.8122982978820801e-01</leafValues></_>
    <_>
      <internalNodes>
        0 -1 581324 2.2306493483483791e-03</internalNodes>
      <leafValues>
        -2.6140016317367554e-01 4.1168427467346191e-01</leafValues></_>
    <_>
      <internalNodes>
        0 -1 316711 -1.3918891549110413e-02</internalNodes>
      <leafValues>
        5.5436867475509644e-01 -1.7933173477649689e-01</leafValues></_>
    <_>
      <internalNodes>
        0 -1 232231 -1.3893222436308861e-02</internalNodes>
      <leafValues>
        5.1565945148468018e-01 -1.8720777332782745e-01</leafValues></_>
    <_>
      <internalNodes>
        0 -1 431868 -1.0790210217237473e-02</internalNodes>
      <leafValues>
        5.7369196414947510e-01 -2.0377352833747864e-01</leafValues></_></weakClassifiers></stage0>
</opencv_storage>
